<?xml version="1.0"?>
<opencv_storage>
<my_svm type_id="opencv-ml-svm">
  <svm_type>C_SVC</svm_type>
  <kernel><type>LINEAR</type></kernel>
  <C>1.0000000000000000e-02</C>
  <term_criteria><epsilon>1.1920928955078125e-07</epsilon>
    <iterations>1000</iterations></term_criteria>
  <var_all>504</var_all>
  <var_count>504</var_count>
  <class_count>2</class_count>
  <class_labels type_id="opencv-matrix">
    <rows>1</rows>
    <cols>2</cols>
    <dt>i</dt>
    <data>
      -1 1</data></class_labels>
  <sv_total>1</sv_total>
  <support_vectors>
    <_>
      5.28489240e-03 5.37336953e-02 5.61700352e-02 -3.13094884e-01
      -2.29001880e-01 1.25767877e-02 1.81014672e-01 1.80213109e-01
      1.42844440e-02 -1.84102684e-01 1.71060190e-01 1.90881088e-01
      1.20042302e-01 -2.34116316e-02 1.06207050e-01 1.70643628e-01
      9.19830054e-02 -3.73811960e-01 8.66229832e-02 6.68601990e-02
      1.17236391e-01 -2.98407793e-01 -2.81395108e-01 -1.99373469e-01
      9.97161120e-02 5.40915132e-02 1.82085745e-02 -1.13437779e-01
      5.88964820e-02 1.54452771e-01 5.72736040e-02 -1.95200086e-01
      2.81194411e-03 7.99642503e-02 -7.82745034e-02 -2.70037234e-01
      -1.01095386e-01 1.75810114e-01 1.56567737e-01 1.86938196e-01
      2.47766753e-03 -1.02380492e-01 6.94532096e-02 1.45762302e-02
      -4.64453757e-01 1.12909093e-01 1.57878980e-01 1.88865468e-01
      1.67708844e-01 -2.28187144e-01 -4.37207103e-01 4.00782637e-02
      2.05514580e-02 -1.13579080e-01 -9.35105681e-02 8.38561729e-02
      1.08814143e-01 7.45322183e-02 -2.99412943e-02 -3.51434536e-02
      7.46534541e-02 -2.92546488e-02 -2.90362984e-01 1.68308169e-01
      1.53295666e-01 2.06074953e-01 -4.23912741e-02 -2.22906038e-01
      -2.98895210e-01 1.24411456e-01 1.13056786e-01 4.51897345e-02
      9.49874371e-02 5.09665012e-02 5.51430359e-02 -9.45580229e-02
      -5.96551523e-02 -1.59345925e-01 1.72686763e-02 -6.69313548e-03
      -2.72488575e-02 -1.86651260e-01 4.74081747e-03 5.66695333e-02
      -5.78267425e-02 -6.16492331e-02 -7.94448256e-02 7.93687813e-03
      -1.03654347e-01 -3.20884675e-01 1.32714827e-02 1.04884747e-02
      -1.31285889e-03 -1.39578298e-01 -7.75792897e-02 -1.34261742e-01
      -1.86673850e-02 -7.52973855e-02 -7.76060075e-02 -1.73862249e-01
      -3.86573598e-02 9.65364370e-03 -7.97595754e-02 -5.37608825e-02
      -6.13790900e-02 -3.74504998e-02 -1.45903438e-01 -2.62689948e-01
      -2.19996184e-01 -2.56700870e-02 -2.68755183e-02 -9.21549201e-02
      1.03254877e-02 -3.63724157e-02 -9.16540530e-03 -1.21753506e-01
      -3.43784988e-01 8.11007768e-02 5.88703640e-02 7.69981975e-03
      -6.60255626e-02 -1.00340031e-01 -1.23443834e-01 -8.51808582e-04
      2.03608884e-03 8.51899665e-03 -2.07269847e-01 -2.17654370e-02
      -2.92273890e-02 -4.63869497e-02 -1.39773767e-02 -2.27169152e-02
      -4.04881053e-02 -1.58427313e-01 -3.37476104e-01 9.25816968e-02
      1.02385014e-01 4.18936387e-02 -8.74628276e-02 -1.20282702e-01
      -1.19136617e-01 4.17085066e-02 4.50462922e-02 6.01865677e-03
      4.75585647e-03 -3.32069583e-02 -3.38116996e-02 -2.01279879e-01
      -8.49307328e-02 -5.06527871e-02 3.22950780e-02 1.22321770e-02
      4.28143283e-03 -1.77880809e-01 -6.05345378e-03 3.69777791e-02
      -1.76970419e-02 -3.19012068e-02 -2.71746870e-02 1.82775967e-02
      -5.06801046e-02 -2.24719211e-01 6.32392196e-03 -6.51478916e-02
      -1.04932986e-01 -3.06607842e-01 -7.79148266e-02 -1.43948391e-01
      -4.54546176e-02 -3.45442891e-02 -5.48112132e-02 -2.24257842e-01
      -2.91527379e-02 3.45148593e-02 -5.85539714e-02 -2.16192566e-02
      -3.23582515e-02 1.30616985e-02 -1.08102940e-01 -2.87177861e-01
      -1.54670790e-01 -5.62022952e-03 2.15564203e-02 -9.84647311e-03
      -2.29060985e-02 -1.41439542e-01 -2.76281741e-02 -4.80292924e-02
      -2.25589260e-01 1.00821592e-01 7.30358958e-02 5.06128520e-02
      -2.40109507e-02 -1.97197691e-01 -1.52857363e-01 6.84981644e-02
      4.48516719e-02 5.35401031e-02 -2.37525910e-01 -2.19974928e-02
      1.70101132e-02 -5.47871068e-02 -1.88703965e-02 -7.97811225e-02
      -1.94699243e-02 -9.27896649e-02 -2.91654080e-01 5.75864837e-02
      6.99423924e-02 3.31558660e-02 -1.10678598e-01 -1.52296975e-01
      -1.00750819e-01 6.73722029e-02 2.20971275e-02 3.61373974e-03
      7.02547655e-02 2.96575837e-02 -7.86504336e-03 -2.26584435e-01
      -5.06552346e-02 -2.22921506e-01 -7.55942836e-02 -4.84417714e-02
      1.14019867e-02 -1.82969078e-01 -1.40263075e-02 3.00271176e-02
      -3.13362256e-02 -5.21794111e-02 -6.15477152e-02 1.27550717e-02
      -5.32500073e-02 -2.11633667e-01 1.53950509e-02 -3.23493630e-02
      -3.81384045e-02 -2.38287285e-01 -5.66148944e-02 -2.51454115e-01
      -9.60894972e-02 -5.71392067e-02 1.59117691e-02 -2.11931303e-01
      -5.21853790e-02 3.91105600e-02 -4.84806821e-02 3.65219370e-04
      -4.86480929e-02 -2.03222822e-04 -5.56130446e-02 -2.08148673e-01
      -2.10759088e-01 -5.37265167e-02 -3.25521361e-03 -5.29369079e-02
      -4.39024791e-02 -2.76501626e-02 3.17806713e-02 -3.34707834e-02
      -2.02000231e-01 4.61149551e-02 8.90205353e-02 9.71334428e-02
      -5.24982326e-02 -1.14915021e-01 -1.17862649e-01 9.27237198e-02
      5.10518588e-02 4.12916578e-02 -2.73457706e-01 -7.41176009e-02
      5.62624820e-03 -6.70319796e-02 -3.01669464e-02 -4.64762002e-02
      9.44083650e-03 -5.14316037e-02 -2.36115336e-01 3.56309637e-02
      6.50064796e-02 8.34467635e-02 -7.08980411e-02 -1.22050866e-01
      -8.15500394e-02 9.12511200e-02 1.46965554e-03 3.53594832e-02
      -1.53599186e-02 -4.20994721e-02 -1.51136685e-02 -8.62481073e-02
      -8.10347795e-02 -2.48626426e-01 -1.12959042e-01 -4.45906147e-02
      6.17878586e-02 -2.50737995e-01 -7.12679699e-02 3.60583775e-02
      5.50582372e-02 3.88572104e-02 -2.38456000e-02 4.80179638e-02
      -1.91050768e-03 -1.44333199e-01 -3.64875272e-02 -4.73598950e-02
      -2.84667481e-02 -1.05908573e-01 -6.48059696e-02 -2.60724068e-01
      -7.83615634e-02 -2.34674253e-02 5.02841780e-03 -2.48931289e-01
      -8.05901736e-02 1.16593065e-02 -4.48481692e-03 6.20271778e-03
      -4.03519161e-02 5.97636662e-02 -1.72492843e-02 -1.99052766e-01
      -3.00956517e-01 -1.07567757e-01 1.24208471e-02 -3.42721492e-03
      2.21476275e-02 -2.26313267e-02 5.06516211e-02 -1.93427820e-02
      -1.80709273e-01 -6.59254263e-04 4.71209139e-02 7.84555897e-02
      -9.15165395e-02 -1.75425231e-01 -1.46433949e-01 7.70112351e-02
      3.88965271e-02 6.52153268e-02 -2.70415485e-01 -9.65104252e-02
      -4.40311572e-03 -2.88484935e-02 3.85320373e-02 -1.98475737e-02
      2.80826725e-02 -3.37153189e-02 -1.62839234e-01 2.80020386e-02
      4.12386321e-02 4.39516753e-02 -1.44154355e-01 -1.73770130e-01
      -1.15724154e-01 5.56959137e-02 6.50001988e-02 1.13125220e-01
      -6.59727678e-02 -2.92707924e-02 -1.45861246e-02 -1.16436690e-01
      -1.81276977e-01 -1.41312316e-01 3.98740880e-02 2.98875310e-02
      5.73261119e-02 -2.67820388e-01 -1.21570580e-01 -1.15859490e-02
      1.54694030e-03 -1.09328710e-01 -7.30751455e-02 -2.72081862e-03
      -8.41757134e-02 -1.94229379e-01 -5.53149581e-02 -3.90739366e-02
      2.56928448e-02 -3.50725763e-02 -8.97464082e-02 -1.22720189e-01
      5.01330979e-02 1.82008985e-02 2.96377949e-02 -3.16856682e-01
      -1.49592355e-01 -2.44467501e-02 -3.03814071e-03 -7.84312338e-02
      -1.33886874e-01 -6.69865403e-03 -7.16693252e-02 -2.34578729e-01
      -2.84831971e-01 -1.13488615e-01 -3.65757151e-03 6.23818226e-02
      4.62628491e-02 -3.61115113e-02 1.19636170e-04 -8.22388753e-02
      -2.02145606e-01 -1.36836842e-02 3.69720198e-02 8.99555385e-02
      3.91540937e-02 -7.44264275e-02 -8.47162530e-02 8.79739150e-02
      5.44474386e-02 4.05852161e-02 -3.52089912e-01 -1.42354593e-01
      -2.45118756e-02 4.60288189e-02 3.72475237e-02 -1.52163371e-01
      -4.72652614e-02 -7.88877755e-02 -2.45288178e-01 -1.34664327e-02
      5.85379079e-03 5.35056517e-02 2.61707101e-02 -5.79551943e-02
      -1.23088948e-01 9.55998898e-03 5.21925390e-02 5.92123792e-02
      -6.44398034e-02 1.53532000e-02 8.13878328e-02 -1.10378578e-01
      -3.10253590e-01 -2.34938502e-01 9.79418680e-02 3.98715362e-02
      6.98032901e-02 -3.65036219e-01 -1.09104730e-01 1.01184934e-01
      1.17457904e-01 -1.39782548e-01 -2.36473456e-02 1.35240749e-01
      2.41208095e-02 -1.56009018e-01 1.38880983e-02 1.29324630e-01
      1.89098611e-01 5.99738061e-02 -2.53500283e-01 -3.15246642e-01
      9.10443664e-02 3.72870900e-02 1.75174512e-02 -3.55164498e-01
      5.36888391e-02 1.76445663e-01 1.64859280e-01 -1.00709558e-01
      -2.75272802e-02 1.43250644e-01 6.65988848e-02 -1.99933603e-01
      -3.28683674e-01 -1.16302609e-01 9.44240466e-02 1.55120447e-01
      -4.01804745e-02 5.67610674e-02 1.48925468e-01 4.58401144e-02
      -1.16825186e-01 1.68715175e-02 2.70520952e-02 1.24194391e-01
      -5.05212471e-02 -2.47040361e-01 -1.49465203e-01 1.53084695e-01
      7.89564177e-02 1.28838927e-01 -4.53113914e-01 -4.86054234e-02
      6.73740357e-02 -1.76346954e-02 -9.86497924e-02 1.74378797e-01
      1.68811828e-01 8.84826779e-02 -1.38958886e-01 -1.11816332e-01
      -4.66584042e-02 1.92886554e-02 -2.82522619e-01 -2.21777409e-01
      9.65283364e-02 2.16984764e-01 1.49676710e-01 9.08905715e-02</_></support_vectors>
  <decision_functions>
    <_>
      <sv_count>1</sv_count>
      <rho>-4.6550528594324305e+00</rho>
      <alpha>
        1.</alpha>
      <index>
        0</index></_></decision_functions></my_svm>
</opencv_storage>
