<?xml version="1.0"?>
<opencv_storage>
<my_svm type_id="opencv-ml-svm">
  <svm_type>C_SVC</svm_type>
  <kernel><type>LINEAR</type></kernel>
  <C>1.0000000000000000e-02</C>
  <term_criteria><epsilon>1.1920928955078125e-07</epsilon>
    <iterations>1000</iterations></term_criteria>
  <var_all>336</var_all>
  <var_count>336</var_count>
  <class_count>2</class_count>
  <class_labels type_id="opencv-matrix">
    <rows>1</rows>
    <cols>2</cols>
    <dt>i</dt>
    <data>
      -1 1</data></class_labels>
  <sv_total>1</sv_total>
  <support_vectors>
    <_>
      -3.11703661e-06 7.25510195e-02 -2.96661258e-01 -2.52314419e-01
      2.89159566e-01 5.77832498e-02 -2.25371897e-01 2.77608782e-01
      9.03565735e-02 1.32911559e-02 2.42965326e-01 -3.87664557e-01
      1.03571013e-01 1.59654468e-01 -3.10876995e-01 -3.47188443e-01
      1.34807020e-01 5.11367097e-02 -1.27126262e-01 1.96072832e-01
      -8.87240767e-02 -1.84104979e-01 5.96291088e-02 -2.62948871e-01
      -1.53700411e-01 2.63663352e-01 1.43763602e-01 -9.25188661e-02
      1.00143358e-01 -4.77769196e-01 1.31794214e-01 3.08274627e-01
      -2.08176166e-01 -3.65673840e-01 2.53401045e-02 -8.57833847e-02
      -1.35206953e-01 1.76224962e-01 4.94840480e-02 -9.26463977e-02
      7.61594847e-02 -2.98077255e-01 1.88933715e-01 2.97755152e-01
      -2.17456922e-01 -2.86829799e-01 1.50490656e-01 6.82219937e-02
      9.67675373e-02 9.79119614e-02 -1.12922698e-01 -1.07835442e-01
      1.04982331e-02 -4.93433215e-02 -2.35367134e-01 7.86086172e-02
      -6.24731965e-02 -9.39425826e-02 -2.15690378e-02 -3.56384099e-01
      -4.19554854e-04 1.09620276e-03 -1.26258060e-01 -1.24306038e-01
      -6.92077652e-02 -1.07306980e-01 -1.94357291e-01 -1.99402422e-02
      -8.73618200e-02 -1.17768727e-01 -8.00557286e-02 -2.74109095e-01
      -2.75213927e-01 -1.56777781e-02 -1.26204370e-02 -1.06136156e-02
      -3.22600156e-02 -4.03957099e-01 7.32673854e-02 5.87533340e-02
      -1.59812048e-01 -9.89167690e-02 1.81987192e-02 6.33311318e-03
      -2.64178485e-01 -5.15501313e-02 -8.07991996e-03 -4.23464440e-02
      -1.12928875e-01 -3.98366362e-01 8.62899199e-02 8.46744254e-02
      -1.75530791e-01 -1.18323356e-01 5.66942804e-02 4.10193577e-03
      -3.24039645e-02 -7.09368512e-02 -1.46984488e-01 -1.22570038e-01
      5.53557239e-02 -6.54307008e-03 -2.10002795e-01 5.07017747e-02
      -4.61629219e-02 -3.21874768e-02 -9.16767400e-03 -2.53701895e-01
      -3.38826403e-02 -1.77638352e-01 -1.78459927e-01 -1.42937675e-01
      -4.27385271e-02 -8.67564604e-02 -2.40154460e-01 8.66257492e-03
      -6.76646307e-02 -4.71198745e-02 -1.97449625e-02 -2.83040345e-01
      -1.64636448e-01 4.59793992e-02 -1.74527168e-02 -7.14981705e-02
      -5.86843267e-02 -2.58378744e-01 1.24919921e-01 1.04031146e-01
      -2.08684802e-01 -2.23757237e-01 6.37926087e-02 5.61966039e-02
      -2.74914891e-01 1.14511382e-02 -5.04669398e-02 -3.35463881e-02
      -3.97841632e-02 -3.17995250e-01 3.86953950e-02 7.45937303e-02
      -1.70960709e-01 -1.80403873e-01 6.37976527e-02 5.27075399e-03
      7.35207200e-02 -1.25263976e-02 -1.38862342e-01 -1.73817754e-01
      -1.24730185e-01 -1.75388083e-02 -1.96941793e-01 4.36589532e-02
      -6.66138977e-02 -1.05687775e-01 -1.87127348e-02 -2.37758607e-01
      -4.62541403e-03 -3.49938273e-02 -1.49439991e-01 -1.79705545e-01
      -1.42315120e-01 -1.87090617e-02 -2.19994202e-01 5.31717390e-02
      -5.55231199e-02 -5.18002473e-02 -1.82031915e-02 -2.24559993e-01
      -2.55477518e-01 -2.29775924e-02 -4.64492179e-02 -3.42833214e-02
      2.16716435e-03 -2.48896390e-01 4.60076034e-02 1.34450078e-01
      -1.30070850e-01 -1.19508602e-01 9.74972919e-02 4.18613553e-02
      -3.14608037e-01 -3.44445296e-02 -3.83183472e-02 -6.10894337e-02
      -1.62901934e-02 -2.74975836e-01 3.90759036e-02 9.58199129e-02
      -1.33871973e-01 -1.04830928e-01 7.92592242e-02 7.41810864e-03
      -4.95939553e-02 -3.43503803e-02 -1.34302333e-01 -1.98429540e-01
      -1.39973700e-01 2.15245485e-02 -2.85965264e-01 5.06061502e-03
      5.12460880e-02 2.48067616e-03 5.03073558e-02 -1.79664478e-01
      -4.71720360e-02 -4.85279709e-02 -1.10820130e-01 -1.37208030e-01
      -9.37227607e-02 -2.02479083e-02 -2.64554620e-01 -2.01737750e-02
      -3.48862335e-02 -2.47504208e-02 5.05123474e-02 -2.17433780e-01
      -3.37410331e-01 -3.94363813e-02 1.20859407e-02 -7.93708209e-03
      4.15378213e-02 -2.27967024e-01 1.88264754e-02 8.25034156e-02
      -1.87139034e-01 -2.06782639e-01 7.29450509e-02 8.35652947e-02
      -3.09039831e-01 -2.87633725e-02 -1.03504292e-03 -2.07547611e-03
      1.89704809e-03 -2.14988410e-01 4.08037864e-02 6.31628856e-02
      -1.93694875e-01 -2.00616553e-01 6.37771562e-02 1.20731324e-01
      -7.71875978e-02 1.38955528e-03 -1.91043317e-01 -2.23184809e-01
      5.56350164e-02 4.70891483e-02 -2.60343462e-01 -1.43965948e-02
      -6.44083843e-02 -1.16511770e-01 -1.55497082e-02 -2.33759195e-01
      -7.76054412e-02 1.80576369e-02 -7.72935674e-02 -9.94899794e-02
      4.27228287e-02 2.25931243e-03 -3.37978810e-01 -8.28211084e-02
      -6.51746243e-02 -9.79107320e-02 -6.55120015e-02 -2.84430891e-01
      -2.83992648e-01 -1.81408655e-02 7.25082830e-02 6.06774632e-03
      -2.09623277e-02 -2.51082271e-01 2.75758412e-02 1.17016293e-01
      -7.50459507e-02 -1.39023021e-01 1.25795692e-01 6.16981387e-02
      -3.85551333e-01 -6.01246357e-02 5.31869419e-02 -2.52456740e-02
      -1.14880227e-01 -3.18732083e-01 9.48631298e-03 5.28790429e-02
      -3.02753840e-02 -1.26302674e-01 -1.38659207e-02 4.90020141e-02
      -6.99426457e-02 1.05579771e-01 -3.12155545e-01 -3.42264712e-01
      1.28061175e-01 4.78967503e-02 -3.81196380e-01 7.99590275e-02
      -5.84798232e-02 -6.78132847e-02 1.85959533e-01 -1.80348739e-01
      4.71212119e-02 2.92034507e-01 -2.37309322e-01 -3.08625102e-01
      1.10009447e-01 1.02663366e-02 -3.48538816e-01 2.59943753e-01
      -3.52829695e-02 -3.51929888e-02 2.08947033e-01 -2.38817737e-01
      -3.64174277e-01 9.21982303e-02 5.24430461e-02 2.34381184e-02
      1.94202125e-01 -1.48936778e-01 2.23204270e-02 1.59179628e-01
      -2.50732452e-01 -2.27084979e-01 1.80984885e-01 1.44498244e-01
      -4.90035415e-01 9.67792645e-02 -5.66614792e-02 1.15602268e-02
      2.36252397e-01 -2.09125906e-01 -1.30447403e-01 -2.33491510e-03
      -2.48182267e-01 -2.01007172e-01 3.14177990e-01 1.01734400e-01</_></support_vectors>
  <decision_functions>
    <_>
      <sv_count>1</sv_count>
      <rho>-5.2396371015992624e+00</rho>
      <alpha>
        1.</alpha>
      <index>
        0</index></_></decision_functions></my_svm>
</opencv_storage>
