<?xml version="1.0"?>
<opencv_storage>
<my_svm type_id="opencv-ml-svm">
  <svm_type>C_SVC</svm_type>
  <kernel><type>LINEAR</type></kernel>
  <C>1.0000000000000000e-02</C>
  <term_criteria><epsilon>1.1920928955078125e-07</epsilon>
    <iterations>1000</iterations></term_criteria>
  <var_all>936</var_all>
  <var_count>936</var_count>
  <class_count>2</class_count>
  <class_labels type_id="opencv-matrix">
    <rows>1</rows>
    <cols>2</cols>
    <dt>i</dt>
    <data>
      -1 1</data></class_labels>
  <sv_total>1</sv_total>
  <support_vectors>
    <_>
      -1.03711998e-02 1.81973875e-02 2.76350826e-02 -2.20619112e-01
      -1.56387717e-01 3.85972783e-02 1.36417240e-01 1.34413064e-01
      3.35957366e-03 -1.36572912e-01 1.26586467e-01 1.28629789e-01
      9.21743587e-02 -8.77088681e-03 6.02150112e-02 1.15789339e-01
      8.81304592e-02 -2.78165460e-01 5.48587218e-02 3.30709964e-02
      8.01072866e-02 -2.14805990e-01 -2.04959363e-01 -1.37878239e-01
      6.97119832e-02 4.51030731e-02 1.55814840e-02 -6.69351071e-02
      4.52812202e-02 1.08764023e-01 4.95801717e-02 -1.36082441e-01
      -7.78877689e-03 5.49975634e-02 -4.39093299e-02 -1.93652302e-01
      -7.19551817e-02 1.32135168e-01 1.02417149e-01 1.26868844e-01
      -1.37155890e-04 -8.04267749e-02 3.95492464e-02 2.07057782e-02
      -3.38459343e-01 7.85861984e-02 1.08281434e-01 1.26172021e-01
      1.21993080e-01 -1.60907984e-01 -2.87403613e-01 2.76824981e-02
      1.00860419e-02 -9.59300697e-02 -3.93737927e-02 7.03086555e-02
      8.27999488e-02 6.07660823e-02 -3.70157063e-02 -3.58093753e-02
      5.08575365e-02 -1.28698414e-02 -1.97788537e-01 1.12724192e-01
      1.01141907e-01 1.41080067e-01 -1.23145878e-02 -1.57484487e-01
      -2.01717913e-01 8.07568356e-02 7.47089311e-02 1.40010491e-02
      6.21286668e-02 6.97487518e-02 7.43885934e-02 -1.61244869e-01
      -1.16713777e-01 -1.57312647e-01 3.34778950e-02 2.57708486e-02
      2.99050733e-02 -9.56542045e-02 3.58410925e-02 1.07437804e-01
      6.17781505e-02 -3.34659927e-02 2.31899004e-02 3.99922468e-02
      -6.38403296e-02 -1.84822902e-01 7.60439113e-02 6.77238703e-02
      5.08287959e-02 -1.52491421e-01 -8.54114369e-02 -1.65159181e-01
      -6.02252549e-03 -9.56008118e-03 -2.61287335e-02 -1.25210524e-01
      4.32729051e-02 9.32867453e-02 -1.42980169e-03 -3.39866653e-02
      -1.44887893e-02 1.32753355e-02 -9.90771055e-02 -2.17637599e-01
      -1.22581147e-01 3.07030771e-02 7.05569983e-02 3.65972184e-02
      2.51743756e-02 -1.47674950e-02 2.92689297e-02 -5.93663268e-02
      -2.20261306e-01 4.75224331e-02 9.23597142e-02 1.08685210e-01
      -1.75437033e-02 -8.07757154e-02 -1.11039609e-01 5.48664443e-02
      3.95745784e-02 -2.26811133e-02 -1.37383983e-01 2.28786282e-03
      1.91008952e-02 -4.39258963e-02 9.15458333e-03 -2.36821175e-02
      1.50223891e-03 -9.74564031e-02 -2.20961377e-01 5.74565418e-02
      6.06079288e-02 2.71488391e-02 -1.01961702e-01 -8.10431987e-02
      -9.45860073e-02 2.77960803e-02 1.25536891e-02 5.75472543e-04
      7.46300817e-02 2.36192998e-02 2.47754343e-02 -7.49664307e-02
      -6.29484281e-02 -1.00476854e-01 1.82743687e-02 -1.20004192e-02
      -2.39504501e-02 -1.03216581e-01 8.23649019e-03 3.93223464e-02
      -3.20184380e-02 -4.82719690e-02 -3.96923684e-02 4.49150894e-03
      -6.87250420e-02 -2.17668191e-01 1.60379000e-02 -1.21274693e-02
      -2.50410903e-02 -1.06892712e-01 -6.90731257e-02 -8.40839222e-02
      -1.73017364e-02 -5.78774251e-02 -6.07332811e-02 -9.91809964e-02
      -2.37181447e-02 -4.31822333e-03 -5.68579994e-02 -4.92456704e-02
      -4.72171865e-02 -3.80546227e-02 -9.98210385e-02 -1.74251512e-01
      -1.28683567e-01 -1.54768657e-02 -3.03611867e-02 -7.87161067e-02
      -9.22323111e-03 -2.18223520e-02 -6.91362657e-03 -8.13602880e-02
      -2.28747264e-01 5.41983619e-02 3.33469398e-02 -7.03588780e-03
      -4.92641665e-02 -5.94196431e-02 -7.33528212e-02 -1.77058652e-02
      -8.47273972e-04 1.03208730e-02 -1.30082890e-01 -1.01071782e-02
      -2.58565750e-02 -3.80617604e-02 -1.97221320e-02 -8.79025087e-03
      -2.99140438e-02 -1.10434756e-01 -2.37633631e-01 5.60111366e-02
      6.26316965e-02 2.35700887e-02 -5.39011918e-02 -7.53585771e-02
      -4.05719429e-02 3.15448903e-02 1.88128408e-02 -1.96395535e-02
      2.77006216e-02 -7.37865735e-03 -1.12836212e-02 -1.03443161e-01
      -7.74936303e-02 -5.32203056e-02 -9.45024379e-03 -4.21712697e-02
      -2.88444944e-02 -8.64956155e-02 7.92822987e-03 4.11811806e-02
      -3.16880606e-02 -5.82471043e-02 -3.07931080e-02 -2.29255278e-02
      -8.16423744e-02 -1.56510428e-01 -7.44379358e-03 -2.51600612e-02
      -5.62534062e-03 -1.37528092e-01 -3.69343273e-02 -2.78281402e-02
      3.39823551e-02 -2.02759597e-02 -3.49081419e-02 -1.14909165e-01
      4.16845409e-03 6.52684122e-02 -2.54557338e-02 -5.62796369e-02
      -5.42824008e-02 -1.14325704e-02 -7.91127160e-02 -1.74399704e-01
      -8.70903581e-02 2.97591127e-02 3.68985981e-02 -6.05569873e-03
      -4.87273410e-02 -6.29053712e-02 -5.60316071e-02 -7.82387182e-02
      -1.92817554e-01 5.82444370e-02 9.09407958e-02 7.10459948e-02
      -5.05498461e-02 -1.44607604e-01 -1.16798215e-01 1.06468657e-02
      6.77691447e-03 -5.60915982e-03 -7.25523606e-02 3.99340875e-03
      3.12814377e-02 -1.67060308e-02 -3.04057132e-02 -1.14955716e-01
      -5.91223501e-02 -5.94274849e-02 -1.44544005e-01 7.24893734e-02
      4.84297238e-02 3.11452337e-02 -5.48888817e-02 -1.41531259e-01
      -1.13080114e-01 5.30879200e-02 4.10850234e-02 3.99458967e-02
      -2.94229970e-03 -3.75826731e-02 -2.70859841e-02 -1.38368100e-01
      -5.14018945e-02 -2.98717804e-02 2.98153237e-02 1.97583474e-02
      3.20973480e-03 -1.13503009e-01 -1.58349443e-02 1.11629171e-02
      -3.73999886e-02 -3.58021222e-02 -4.78071943e-02 1.06503600e-02
      -2.15411801e-02 -1.33123666e-01 -7.37637468e-03 -4.59005199e-02
      -7.50300586e-02 -1.87801048e-01 -5.13334610e-02 -8.98621976e-02
      -3.67507115e-02 -2.21338235e-02 -6.60681352e-02 -1.52483255e-01
      -1.52098527e-02 2.11463645e-02 -4.55786288e-02 -2.41689421e-02
      -3.94716896e-02 6.51726406e-03 -6.76153675e-02 -2.11102799e-01
      -1.17383301e-01 -1.16642453e-02 2.28344556e-03 -2.60618385e-02
      -6.52034953e-03 -1.22280702e-01 -2.11639889e-02 -2.61277221e-02
      -1.55723438e-01 3.96562926e-02 4.53397334e-02 2.93074343e-02
      -1.11330450e-02 -1.08402193e-01 -8.94900039e-02 4.47459035e-02
      4.04449552e-02 1.53566115e-02 -1.65621504e-01 -1.67818815e-02
      8.53179954e-03 -4.13735770e-02 3.13601387e-03 -7.68913478e-02
      -1.95649434e-02 -6.39999360e-02 -2.07476780e-01 2.20685452e-02
      3.99480723e-02 2.46486738e-02 -4.65066992e-02 -9.04622823e-02
      -5.81819229e-02 2.83815097e-02 1.98973622e-02 -1.57220066e-02
      5.00451177e-02 -2.04953589e-02 -4.92373481e-02 -1.79983124e-01
      -6.68526068e-02 -1.02761470e-01 -2.61947345e-02 -2.06659138e-02
      3.37839103e-03 -1.12328045e-01 -6.88690506e-03 3.12406905e-02
      -3.65031064e-02 -4.86963280e-02 -3.42091136e-02 3.34828831e-02
      -4.76822704e-02 -1.55623227e-01 4.55537923e-02 -1.77049562e-02
      -5.59222624e-02 -1.92822024e-01 -6.57936335e-02 -1.36723801e-01
      -4.83696200e-02 -4.66619320e-02 -8.32835771e-03 -1.26739591e-01
      -1.64131392e-02 1.99539233e-02 -4.36207615e-02 -4.04635184e-02
      -2.38092653e-02 2.66772099e-02 -4.04342711e-02 -1.42658338e-01
      -1.15548640e-01 -1.20406188e-02 1.46140140e-02 -3.32654156e-02
      -5.26071675e-02 -4.10171933e-02 2.34829560e-02 -2.38952562e-02
      -1.49691284e-01 2.87910849e-02 5.43611310e-02 6.55456185e-02
      -2.41244845e-02 -1.18379220e-01 -5.70675507e-02 1.96832418e-02
      2.39788648e-02 5.97940199e-03 -1.27920866e-01 -1.49520775e-02
      2.06230413e-02 -3.35727818e-02 -6.01721816e-02 -3.00859567e-02
      4.04918008e-02 -1.73406731e-02 -1.35977149e-01 2.82899514e-02
      5.32242768e-02 6.99365065e-02 -2.42003184e-02 -9.93713662e-02
      -5.80204614e-02 8.14293399e-02 5.11327684e-02 2.60504261e-02
      4.33295444e-02 2.39811875e-02 -4.34000231e-03 -1.51717782e-01
      -3.04417051e-02 -1.35974571e-01 -4.92300615e-02 -2.73323003e-02
      2.85926537e-04 -1.23840980e-01 -1.05042523e-03 2.73784641e-02
      -4.34177788e-03 -2.31234375e-02 -3.12857665e-02 2.14563608e-02
      -2.03126073e-02 -1.47547036e-01 1.46474792e-02 -3.19786593e-02
      -3.99923734e-02 -1.81471571e-01 -5.22244126e-02 -1.63779393e-01
      -7.71928057e-02 -4.41782847e-02 1.88196879e-02 -1.32573262e-01
      -4.30867299e-02 2.61213779e-02 -3.95111404e-02 -8.69662873e-03
      -5.85968755e-02 -2.40852144e-02 -5.69114015e-02 -1.34672418e-01
      -1.37760058e-01 -2.31901947e-02 -1.15105987e-03 -3.77391763e-02
      -3.27929184e-02 -1.73397735e-02 3.34827453e-02 -4.41930443e-03
      -1.20700978e-01 2.38303803e-02 7.18186572e-02 4.85291518e-02
      -3.03303748e-02 -6.63308799e-02 -6.54347911e-02 7.11584613e-02
      3.63859385e-02 3.06801908e-02 -1.80610180e-01 -6.74559325e-02
      -2.05872767e-02 -8.48677978e-02 -1.77367609e-02 -4.43719588e-02
      -3.57472571e-03 -2.59466916e-02 -1.41694471e-01 5.29018091e-03
      3.15072201e-02 2.86120661e-02 -5.28899096e-02 -7.76866749e-02
      -3.73658836e-02 7.71393850e-02 1.11806262e-02 2.30403468e-02
      -7.35908339e-04 -4.30699624e-02 -3.33716683e-02 -1.60370901e-01
      -5.81511185e-02 -1.87732249e-01 -8.34665373e-02 -3.83164845e-02
      -1.74296706e-03 -1.29519328e-01 -3.13666426e-02 5.85703440e-02
      -1.09300623e-02 -2.44510323e-02 -7.26813152e-02 -8.77490174e-03
      -2.00522263e-02 -1.30465448e-01 1.95666980e-02 -4.54003997e-02
      -3.11977770e-02 -1.18268803e-01 -4.50581685e-02 -2.30603918e-01
      -1.19642951e-01 -7.01974705e-02 2.19411235e-02 -1.07129924e-01
      -3.23387831e-02 5.60939722e-02 1.17822355e-02 8.91267729e-04
      -8.21377337e-02 2.59706732e-02 -2.81493813e-02 -1.08189180e-01
      -1.30885780e-01 -3.84180583e-02 1.24981618e-02 -4.72972132e-02
      -3.71675789e-02 -5.99931143e-02 2.27854494e-02 3.05818929e-03
      -1.13488756e-01 5.60893677e-03 5.40753379e-02 8.20129812e-02
      -1.44640049e-02 -7.03213140e-02 -5.57458103e-02 6.89222068e-02
      2.50955783e-02 1.82878729e-02 -1.46224841e-01 -5.29838726e-02
      2.40739770e-02 -5.21110483e-02 -4.03622128e-02 -3.68457288e-02
      4.16959710e-02 -2.77510416e-02 -1.26091346e-01 -4.73430101e-03
      2.86599752e-02 6.02377318e-02 -5.35969101e-02 -8.68196636e-02
      -7.88682923e-02 8.77582580e-02 3.97746898e-02 1.97424795e-02
      -2.15848107e-02 -3.64502743e-02 -4.71636932e-03 -4.28736322e-02
      -3.55885550e-02 -1.69955015e-01 -9.19589624e-02 -3.54848318e-02
      3.29401642e-02 -1.68145016e-01 -4.83704917e-02 1.69465281e-02
      3.45234945e-02 5.35107870e-03 -3.13229859e-02 2.12955531e-02
      -1.48799624e-02 -9.86867547e-02 -3.90615650e-02 -3.15156020e-02
      -4.67718858e-03 -3.35452631e-02 -2.58890409e-02 -1.78723991e-01
      -7.11997598e-02 -2.15871520e-02 -8.88413657e-03 -1.69918910e-01
      -6.44541457e-02 1.80655171e-03 -8.23505688e-03 -1.76133811e-02
      -4.12836000e-02 3.12933661e-02 -1.80685390e-02 -1.24751538e-01
      -1.91501215e-01 -8.54010358e-02 -1.68814734e-02 -3.25134359e-02
      9.23725497e-03 -4.13486026e-02 1.92880128e-02 -2.45527420e-02
      -1.15018927e-01 -2.62495270e-03 1.51800551e-02 2.33411118e-02
      -7.56650195e-02 -1.03381388e-01 -9.47011709e-02 4.24198508e-02
      2.52111293e-02 5.07340804e-02 -1.77091837e-01 -8.20456892e-02
      -2.50956044e-02 -4.47868556e-02 2.14070175e-02 -3.08763515e-02
      1.64196885e-03 -2.70338356e-02 -8.73976499e-02 1.86966006e-02
      1.34768784e-02 7.51212647e-04 -1.08558536e-01 -1.00054875e-01
      -7.19956234e-02 3.15874256e-02 4.92866598e-02 8.70605037e-02
      -4.81634028e-02 -2.07953937e-02 1.97300245e-03 -4.11531180e-02
      -9.98694077e-02 -1.27828449e-01 -3.18421833e-02 1.56346224e-02
      3.98222581e-02 -1.89724624e-01 -6.13166168e-02 1.37610342e-02
      1.51755502e-02 -6.65831491e-02 -2.42990609e-02 4.09983136e-02
      7.96682108e-03 -1.29350290e-01 -3.06378379e-02 -3.30908038e-02
      -1.02574341e-02 -7.63611197e-02 -1.27974540e-01 -1.17264323e-01
      3.36248949e-02 5.03788441e-02 5.29606305e-02 -1.87464222e-01
      -6.96266592e-02 4.03750725e-02 2.51029003e-02 -5.99065349e-02
      -2.60535404e-02 4.49894033e-02 -6.05347194e-03 -1.23969592e-01
      -2.06342548e-01 -7.72173330e-02 -8.70408025e-03 5.70506090e-04
      1.88078289e-03 -4.88941930e-02 1.47135993e-02 -1.52759338e-02
      -1.22040138e-01 6.96461182e-03 2.91749947e-02 5.17798066e-02
      -3.11904270e-02 -8.10215697e-02 -5.54541573e-02 3.47621590e-02
      3.57341431e-02 6.62015006e-02 -2.19471499e-01 -7.55159855e-02
      1.80206671e-02 2.78032850e-02 -1.64204987e-03 -4.85766605e-02
      1.32154366e-02 -4.35032062e-02 -1.43293917e-01 -3.86880264e-02
      6.06070366e-03 3.23303156e-02 -1.21333497e-03 -8.41746107e-02
      -7.74866417e-02 8.07902366e-02 4.81640026e-02 2.07032040e-02
      -5.34426719e-02 -3.28356959e-02 -2.61124317e-02 -8.62789601e-02
      -1.32824004e-01 -8.94520357e-02 2.55154222e-02 2.37298459e-02
      3.23400721e-02 -1.75718486e-01 -8.27535391e-02 -2.55865324e-02
      -2.31261309e-02 -8.67182091e-02 -7.06405938e-02 -5.29463170e-03
      -4.40234467e-02 -1.14300974e-01 -3.03733572e-02 -3.02127060e-02
      1.31670227e-02 -3.95496413e-02 -8.00247118e-02 -8.73337314e-02
      3.18137147e-02 2.05776971e-02 1.74036715e-02 -1.84556410e-01
      -9.28977504e-02 -2.34646928e-02 -2.94798389e-02 -7.82644153e-02
      -1.05061047e-01 9.01900139e-03 -1.80526376e-02 -1.25628069e-01
      -1.92405373e-01 -8.91722143e-02 -1.88592467e-02 1.50302211e-02
      3.82616138e-03 -5.27842753e-02 -1.17071569e-02 -5.44284359e-02
      -1.23673536e-01 -2.61985455e-02 2.42486075e-02 5.81963621e-02
      2.94094048e-02 -4.34876941e-02 -5.62101938e-02 4.03286815e-02
      2.52945274e-02 1.48175731e-02 -2.22861156e-01 -7.26318136e-02
      -2.01070532e-02 4.69439570e-03 1.08290836e-03 -1.14960581e-01
      -2.37959791e-02 -2.15950478e-02 -1.32095456e-01 -7.61723332e-03
      1.69099476e-02 3.86789702e-02 1.63585693e-02 -4.20479625e-02
      -6.04137518e-02 3.06183612e-03 4.26238477e-02 4.10895161e-02
      -6.01163879e-02 -5.94848953e-02 -2.24291887e-02 -4.23106216e-02
      -9.76955369e-02 -1.26660332e-01 3.63773331e-02 2.07981504e-02
      3.32067832e-02 -2.58497089e-01 -1.18274383e-01 -2.70398287e-03
      2.35857498e-02 -4.35326472e-02 -9.57861245e-02 3.17039303e-02
      -1.42630907e-02 -1.50572166e-01 -5.86473085e-02 -3.69841419e-02
      1.73509121e-02 -4.47083451e-02 -8.88106599e-02 -1.11339986e-01
      9.10024792e-02 4.37859185e-02 5.04016317e-02 -2.50462353e-01
      -1.23197056e-01 3.25047560e-02 5.64052090e-02 -6.51955903e-02
      -1.56874619e-02 1.07037000e-01 1.72938164e-02 -1.28124341e-01
      -2.65949816e-01 -8.26086029e-02 1.31099736e-02 5.56154475e-02
      1.72089897e-02 -8.15442130e-02 3.51992100e-02 1.31358020e-03
      -1.33221045e-01 -3.39408740e-02 1.77474949e-03 5.55721857e-02
      1.69114321e-02 -9.47173089e-02 -1.07542612e-01 1.98222511e-02
      2.73913089e-02 2.52065882e-02 -2.89270908e-01 -1.24618866e-01
      6.77933544e-02 5.65134399e-02 -2.56054886e-02 -3.69399711e-02
      8.91170129e-02 1.29510202e-02 -1.29657671e-01 -5.58736585e-02
      -4.77117077e-02 8.03737789e-02 1.72499623e-02 -8.43142718e-02
      -1.07526459e-01 1.04928315e-01 4.70336527e-02 4.58097681e-02
      -4.50799726e-02 2.15278454e-02 7.61574358e-02 -7.25212321e-02
      -2.22033069e-01 -1.72539935e-01 7.63971731e-02 3.76678184e-02
      5.81214204e-02 -2.59390950e-01 -7.31622204e-02 7.49365985e-02
      6.62575588e-02 -1.27501160e-01 -2.12556366e-02 1.07241735e-01
      2.85516959e-02 -1.04762636e-01 4.75652236e-03 1.06732421e-01
      1.54760405e-01 6.53344989e-02 -1.76955655e-01 -2.35904887e-01
      6.31090701e-02 2.66118124e-02 9.08810459e-03 -2.75103390e-01
      4.58204672e-02 1.30979538e-01 9.66652930e-02 -8.19737092e-02
      -1.05811534e-02 1.10883854e-01 5.24952263e-02 -1.46906435e-01
      -2.16359377e-01 -9.54666957e-02 7.49223530e-02 8.37433860e-02
      -3.72649617e-02 1.88819133e-02 1.13093205e-01 3.97481956e-02
      -5.69853857e-02 5.02185570e-03 -5.30113606e-03 9.18173268e-02
      -4.98136617e-02 -1.49153292e-01 -6.73366934e-02 1.17588148e-01
      6.33717254e-02 1.01697944e-01 -3.16614091e-01 -4.40915637e-02
      4.98040877e-02 -4.56003882e-02 -7.47785121e-02 1.20007932e-01
      1.31236643e-01 6.99460208e-02 -9.18268859e-02 -8.29299241e-02
      -5.71566261e-02 2.35466715e-02 -1.97823420e-01 -1.19881608e-01
      1.10986039e-01 1.75343990e-01 1.17607996e-01 5.83715402e-02</_></support_vectors>
  <decision_functions>
    <_>
      <sv_count>1</sv_count>
      <rho>-5.9309896135819367e+00</rho>
      <alpha>
        1.</alpha>
      <index>
        0</index></_></decision_functions></my_svm>
</opencv_storage>
